FANN_FLO_2.1
num_layers=3
learning_rate=0.700000
connection_rate=1.000000
network_type=0
learning_momentum=0.000000
training_algorithm=2
train_error_function=1
train_stop_function=0
cascade_output_change_fraction=0.010000
quickprop_decay=-0.000100
quickprop_mu=1.750000
rprop_increase_factor=1.200000
rprop_decrease_factor=0.500000
rprop_delta_min=0.000000
rprop_delta_max=50.000000
rprop_delta_zero=0.100000
cascade_output_stagnation_epochs=12
cascade_candidate_change_fraction=0.010000
cascade_candidate_stagnation_epochs=12
cascade_max_out_epochs=150
cascade_min_out_epochs=50
cascade_max_cand_epochs=150
cascade_min_cand_epochs=50
cascade_num_candidate_groups=2
bit_fail_limit=3.49999994039535522461e-01
cascade_candidate_limit=1.00000000000000000000e+03
cascade_weight_multiplier=4.00000005960464477539e-01
cascade_activation_functions_count=10
cascade_activation_functions=3 5 7 8 10 11 14 15 16 17 
cascade_activation_steepnesses_count=4
cascade_activation_steepnesses=2.50000000000000000000e-01 5.00000000000000000000e-01 7.50000000000000000000e-01 1.00000000000000000000e+00 
layer_sizes=7 10 5 
scale_included=0
neurons (num_inputs, activation_function, activation_steepness)=(0, 0, 0.00000000000000000000e+00) (0, 0, 0.00000000000000000000e+00) (0, 0, 0.00000000000000000000e+00) (0, 0, 0.00000000000000000000e+00) (0, 0, 0.00000000000000000000e+00) (0, 0, 0.00000000000000000000e+00) (0, 0, 0.00000000000000000000e+00) (7, 5, 5.00000000000000000000e-01) (7, 5, 5.00000000000000000000e-01) (7, 5, 5.00000000000000000000e-01) (7, 5, 5.00000000000000000000e-01) (7, 5, 5.00000000000000000000e-01) (7, 5, 5.00000000000000000000e-01) (7, 5, 5.00000000000000000000e-01) (7, 5, 5.00000000000000000000e-01) (7, 5, 5.00000000000000000000e-01) (0, 5, 0.00000000000000000000e+00) (10, 5, 5.00000000000000000000e-01) (10, 5, 5.00000000000000000000e-01) (10, 5, 5.00000000000000000000e-01) (10, 5, 5.00000000000000000000e-01) (0, 5, 0.00000000000000000000e+00) 
connections (connected_to_neuron, weight)=(0, 3.73988914489746093750e+00) (1, -1.11600399017333984375e+01) (2, 1.63997185230255126953e+00) (3, 5.57630360126495361328e-01) (4, -3.54366421699523925781e-01) (5, 4.07386541366577148438e+00) (6, 2.15741205215454101562e+00) (0, 8.16670119762420654297e-01) (1, -1.24621105194091796875e+00) (2, 1.52636855840682983398e-01) (3, 8.03215205669403076172e-01) (4, -2.08471655845642089844e-01) (5, 6.92336335778236389160e-02) (6, 7.68924951553344726562e-02) (0, -1.41845107078552246094e-01) (1, 4.52005720138549804688e+00) (2, 4.80314302444458007812e+00) (3, -1.34754979610443115234e+00) (4, 1.64252746105194091797e+00) (5, 4.80475950241088867188e+00) (6, 1.49805057048797607422e+00) (0, 1.78288710117340087891e+00) (1, -4.09221315383911132812e+00) (2, -7.43252396583557128906e-01) (3, 6.05538070201873779297e-01) (4, 5.16474902629852294922e-01) (5, -5.51613606512546539307e-02) (6, 4.99788910150527954102e-01) (0, 5.55748105049133300781e-01) (1, -2.97840356826782226562e+00) (2, 5.08535616099834442139e-02) (3, 5.09763240814208984375e-01) (4, -8.62445980310440063477e-02) (5, -2.90251094847917556763e-02) (6, -6.53372406959533691406e-02) (0, -5.13410270214080810547e-01) (1, 2.27128391265869140625e+01) (2, -7.03297913074493408203e-01) (3, -1.03229908272624015808e-02) (4, 3.34331721067428588867e-01) (5, -4.59460544586181640625e+00) (6, 3.32486145198345184326e-02) (0, 1.41340541839599609375e+00) (1, -2.25373482704162597656e+00) (2, -1.43154478073120117188e+00) (3, 1.00588715076446533203e+00) (4, 5.66966176033020019531e-01) (5, -6.78543806076049804688e-01) (6, -2.65930145978927612305e-01) (0, -8.97326350212097167969e-01) (1, 2.07289147377014160156e+00) (2, 2.48550977557897567749e-02) (3, 2.03579425811767578125e-01) (4, 8.03483724594116210938e-01) (5, 4.16401354596018791199e-03) (6, -1.27721607685089111328e-01) (0, -5.99064767360687255859e-01) (1, 2.57269287109375000000e+00) (2, -3.38758635520935058594e+00) (3, -8.60596358776092529297e-01) (4, 5.21004378795623779297e-01) (5, -2.76663947105407714844e+00) (6, 3.53345312178134918213e-02) (7, 3.16769542694091796875e+01) (8, 3.85859227180480957031e+00) (9, 1.60550343990325927734e+00) (10, 7.46485888957977294922e-01) (11, 3.69789028167724609375e+00) (12, -1.37847549438476562500e+02) (13, 7.92948246002197265625e+00) (14, 1.51082825660705566406e+00) (15, 1.56736755371093750000e+01) (16, 1.73182177543640136719e+00) (7, 8.87287807464599609375e+00) (8, 5.40795135498046875000e+00) (9, -2.82113164663314819336e-01) (10, 4.30169200897216796875e+00) (11, 1.14502325057983398438e+01) (12, 1.68850612640380859375e+01) (13, 1.87509608268737792969e+00) (14, -1.12083518505096435547e+00) (15, -5.58744072914123535156e-01) (16, 4.87495735287666320801e-02) (7, -1.52764062881469726562e+01) (8, 6.27329444885253906250e+00) (9, -2.08621144294738769531e+00) (10, 6.63508176803588867188e-02) (11, 5.96247482299804687500e+00) (12, 1.37573134899139404297e+00) (13, 9.31630432605743408203e-01) (14, 1.51822149753570556641e-01) (15, -1.81178340911865234375e+01) (16, -2.11835002899169921875e+00) (7, 2.32654113769531250000e+02) (8, 1.39703002929687500000e+03) (9, 1.17377661132812500000e+03) (10, 1.02294165039062500000e+03) (11, 1.02348181152343750000e+03) (12, 9.36242858886718750000e+02) (13, 1.20207910156250000000e+03) (14, 9.35712158203125000000e+02) (15, 1.50000000000000000000e+03) (16, 1.17365063476562500000e+03) 
