FANN_FLO_2.1
num_layers=3
learning_rate=0.700000
connection_rate=1.000000
network_type=0
learning_momentum=0.000000
training_algorithm=2
train_error_function=1
train_stop_function=0
cascade_output_change_fraction=0.010000
quickprop_decay=-0.000100
quickprop_mu=1.750000
rprop_increase_factor=1.200000
rprop_decrease_factor=0.500000
rprop_delta_min=0.000000
rprop_delta_max=50.000000
rprop_delta_zero=0.100000
cascade_output_stagnation_epochs=12
cascade_candidate_change_fraction=0.010000
cascade_candidate_stagnation_epochs=12
cascade_max_out_epochs=150
cascade_min_out_epochs=50
cascade_max_cand_epochs=150
cascade_min_cand_epochs=50
cascade_num_candidate_groups=2
bit_fail_limit=3.49999994039535522461e-01
cascade_candidate_limit=1.00000000000000000000e+03
cascade_weight_multiplier=4.00000005960464477539e-01
cascade_activation_functions_count=10
cascade_activation_functions=3 5 7 8 10 11 14 15 16 17 
cascade_activation_steepnesses_count=4
cascade_activation_steepnesses=2.50000000000000000000e-01 5.00000000000000000000e-01 7.50000000000000000000e-01 1.00000000000000000000e+00 
layer_sizes=23 10 5 
scale_included=0
neurons (num_inputs, activation_function, activation_steepness)=(0, 0, 0.00000000000000000000e+00) (0, 0, 0.00000000000000000000e+00) (0, 0, 0.00000000000000000000e+00) (0, 0, 0.00000000000000000000e+00) (0, 0, 0.00000000000000000000e+00) (0, 0, 0.00000000000000000000e+00) (0, 0, 0.00000000000000000000e+00) (0, 0, 0.00000000000000000000e+00) (0, 0, 0.00000000000000000000e+00) (0, 0, 0.00000000000000000000e+00) (0, 0, 0.00000000000000000000e+00) (0, 0, 0.00000000000000000000e+00) (0, 0, 0.00000000000000000000e+00) (0, 0, 0.00000000000000000000e+00) (0, 0, 0.00000000000000000000e+00) (0, 0, 0.00000000000000000000e+00) (0, 0, 0.00000000000000000000e+00) (0, 0, 0.00000000000000000000e+00) (0, 0, 0.00000000000000000000e+00) (0, 0, 0.00000000000000000000e+00) (0, 0, 0.00000000000000000000e+00) (0, 0, 0.00000000000000000000e+00) (0, 0, 0.00000000000000000000e+00) (23, 5, 5.00000000000000000000e-01) (23, 5, 5.00000000000000000000e-01) (23, 5, 5.00000000000000000000e-01) (23, 5, 5.00000000000000000000e-01) (23, 5, 5.00000000000000000000e-01) (23, 5, 5.00000000000000000000e-01) (23, 5, 5.00000000000000000000e-01) (23, 5, 5.00000000000000000000e-01) (23, 5, 5.00000000000000000000e-01) (0, 5, 0.00000000000000000000e+00) (10, 5, 5.00000000000000000000e-01) (10, 5, 5.00000000000000000000e-01) (10, 5, 5.00000000000000000000e-01) (10, 5, 5.00000000000000000000e-01) (0, 5, 0.00000000000000000000e+00) 
connections (connected_to_neuron, weight)=(0, 1.73811778426170349121e-01) (1, 6.11688137054443359375e-01) (2, -2.35086187720298767090e-01) (3, 8.60286712646484375000e-01) (4, 1.46351650357246398926e-01) (5, -1.83532214164733886719e+00) (6, 7.88680970668792724609e-01) (7, 3.97544473409652709961e-01) (8, -2.73712843656539916992e-01) (9, -2.90907528251409530640e-02) (10, -6.93037185668945312500e+01) (11, -1.90741755068302154541e-02) (12, -1.23909902572631835938e+00) (13, 1.81929305195808410645e-01) (14, -5.87564048767089843750e+01) (15, 3.34579467773437500000e-01) (16, 2.64963805675506591797e-01) (17, 2.95854866504669189453e-01) (18, 2.89594233036041259766e-01) (19, 9.89126384258270263672e-01) (20, 6.50060772895812988281e-01) (21, 2.27973252534866333008e-01) (22, -2.10209876298904418945e-01) (0, 5.10555803775787353516e-01) (1, -1.96900635957717895508e-01) (2, -1.40478551387786865234e-01) (3, 5.60153424739837646484e-01) (4, -1.11256279051303863525e-01) (5, 3.96168567240238189697e-02) (6, 4.05129700899124145508e-01) (7, 3.50489839911460876465e-03) (8, 1.82375679016113281250e+01) (9, -8.45680420752614736557e-04) (10, 3.55917282104492187500e+01) (11, -7.34900283813476562500e+00) (12, -1.46820421218872070312e+01) (13, -3.48095130920410156250e+01) (14, 3.62081031799316406250e+01) (15, -1.00751101970672607422e-01) (16, -1.20200678706169128418e-01) (17, -1.35104432702064514160e-01) (18, 4.50604021549224853516e-01) (19, -3.83364409208297729492e-01) (20, 5.61953723430633544922e-01) (21, -2.69930303096771240234e-01) (22, -1.59316752105951309204e-02) (0, 8.52072596549987792969e-01) (1, -5.36083555221557617188e+00) (2, 9.77497816085815429688e-01) (3, 3.47973763942718505859e-01) (4, 2.97136425971984863281e-01) (5, 1.04659521579742431641e+00) (6, 5.05270063877105712891e-01) (7, -6.03448569774627685547e-01) (8, -6.00966691970825195312e-01) (9, 3.44502419233322143555e-01) (10, 1.96878623962402343750e+01) (11, 1.21731892228126525879e-01) (12, -3.17268610000610351562e-01) (13, 1.66401639580726623535e-02) (14, 1.52761352062225341797e+00) (15, -2.29754388332366943359e-01) (16, -7.45560228824615478516e-01) (17, -2.77207434177398681641e-01) (18, 3.62769454717636108398e-01) (19, 9.04378533363342285156e-01) (20, 1.11083674430847167969e+00) (21, 4.80130821466445922852e-01) (22, 5.40687382221221923828e-01) (0, 5.78520894050598144531e-01) (1, 1.05401195585727691650e-01) (2, 1.84280586242675781250e+00) (3, -5.19119203090667724609e-01) (4, 2.55832701921463012695e-01) (5, 5.12662947177886962891e-01) (6, -5.12691974639892578125e-01) (7, 1.15768425166606903076e-01) (8, -2.35131457448005676270e-01) (9, 4.51884478330612182617e-01) (10, -4.29073715209960937500e+01) (11, 2.27707481384277343750e+00) (12, 1.53849782943725585938e+01) (13, 2.29159474372863769531e+00) (14, -1.99340229034423828125e+01) (15, 5.56380152702331542969e-02) (16, 3.61168920993804931641e-01) (17, -3.97773040458559989929e-03) (18, -5.99285885691642761230e-02) (19, -3.22429227828979492188e+00) (20, 1.00751996040344238281e+00) (21, 3.14010232686996459961e-01) (22, 4.58046197891235351562e-01) (0, 9.08434689044952392578e-01) (1, 4.46810692548751831055e-01) (2, -1.00359928607940673828e+00) (3, -6.47859454154968261719e-01) (4, 2.52139568328857421875e-01) (5, -1.54386091232299804688e+00) (6, -2.70320624113082885742e-01) (7, 3.42520922422409057617e-01) (8, 7.13445425033569335938e+00) (9, 3.87413263320922851562e-01) (10, -8.07094097137451171875e+00) (11, 3.82349312305450439453e-01) (12, 7.17245721817016601562e+00) (13, -8.20486903190612792969e-01) (14, -1.25757706165313720703e+00) (15, 4.24956470727920532227e-01) (16, 3.59693139791488647461e-01) (17, 3.55268210172653198242e-01) (18, 3.68946157395839691162e-02) (19, -5.50181329250335693359e-01) (20, 1.38159528374671936035e-01) (21, 1.00586926937103271484e+00) (22, -2.58318901062011718750e-01) (0, 6.56617939472198486328e-01) (1, -1.08518066406250000000e+01) (2, 1.45689404010772705078e+00) (3, 3.38547617197036743164e-01) (4, -9.30221617221832275391e-01) (5, 2.42332410812377929688e+00) (6, 1.86422064900398254395e-01) (7, -1.10900545120239257812e+00) (8, 7.02744960784912109375e-01) (9, -4.63531389832496643066e-02) (10, 2.95330638885498046875e+01) (11, -6.28924548625946044922e-01) (12, -6.93497881293296813965e-02) (13, -2.81408280134201049805e-01) (14, -1.29101037979125976562e+01) (15, -1.98236227035522460938e-01) (16, -2.96203565597534179688e+00) (17, -2.05596232414245605469e+00) (18, 2.68263041973114013672e-01) (19, -8.25295031070709228516e-01) (20, 1.64600062370300292969e+00) (21, 4.27618622779846191406e-01) (22, 1.82726335525512695312e+00) (0, 4.90706041455268859863e-03) (1, 5.78854382038116455078e-01) (2, -4.30669593811035156250e+00) (3, -3.81548911333084106445e-01) (4, 2.27150112390518188477e-01) (5, -2.56985902786254882812e+00) (6, -3.76209110021591186523e-01) (7, 5.05283951759338378906e-01) (8, 9.96022129058837890625e+00) (9, 7.99519062042236328125e-01) (10, 1.07534039020538330078e+00) (11, 5.27644348144531250000e+00) (12, 6.84875190258026123047e-01) (13, 5.24055767059326171875e+00) (14, -9.43549537658691406250e+00) (15, 5.61972975730895996094e-01) (16, 5.97338795661926269531e-01) (17, 4.56672936677932739258e-01) (18, 3.95164042711257934570e-02) (19, 5.30567467212677001953e-01) (20, -6.45015895366668701172e-01) (21, -9.03865158557891845703e-01) (22, -7.16227948665618896484e-01) (0, 1.40329465270042419434e-01) (1, 2.96753317117691040039e-01) (2, 1.29495203495025634766e-01) (3, -2.43630588054656982422e-01) (4, 5.87943971157073974609e-01) (5, -9.72387045621871948242e-02) (6, -2.80263215303421020508e-01) (7, 3.83371144533157348633e-01) (8, -2.04464855194091796875e+01) (9, 3.85419905185699462891e-01) (10, -6.29769659042358398438e+00) (11, 1.11628856658935546875e+01) (12, 4.68841695785522460938e+00) (13, 3.68990783691406250000e+01) (14, -1.11062173843383789062e+01) (15, 2.66639620065689086914e-01) (16, 5.06358981132507324219e-01) (17, 3.88524621725082397461e-01) (18, -1.65651232004165649414e-01) (19, -3.16493958234786987305e-01) (20, 1.24521803855895996094e+00) (21, 8.15853595733642578125e-01) (22, 5.11965095996856689453e-01) (0, 5.01457333564758300781e-01) (1, 3.80530841648578643799e-02) (2, -3.52073252201080322266e-01) (3, 7.09010422229766845703e-01) (4, -1.20234727859497070312e-01) (5, 4.45953875780105590820e-01) (6, 4.74358052015304565430e-01) (7, 1.08776992419734597206e-04) (8, 1.71758251190185546875e+01) (9, -2.95400582253932952881e-02) (10, 2.97861785888671875000e+01) (11, -3.24528598785400390625e+00) (12, -3.53413200378417968750e+01) (13, -2.09163818359375000000e+01) (14, 2.01636552810668945312e+00) (15, -1.06228716671466827393e-01) (16, 4.14014719426631927490e-02) (17, -7.26806446909904479980e-02) (18, 4.14880394935607910156e-01) (19, 3.34755063056945800781e-01) (20, 4.52327817678451538086e-01) (21, -4.24015283584594726562e-01) (22, -1.04074917733669281006e-01) (23, 4.71145263671875000000e+02) (24, 1.13584419250488281250e+02) (25, 3.91575012207031250000e+02) (26, 2.97521301269531250000e+02) (27, 7.64341020584106445312e+00) (28, 1.50000000000000000000e+03) (29, 9.20411109924316406250e+00) (30, 1.76184799194335937500e+02) (31, 2.01457519531250000000e+01) (32, 1.28171081542968750000e+01) (23, 2.23164916038513183594e+00) (24, 2.79412055015563964844e+00) (25, 3.26487579345703125000e+01) (26, -6.69915580749511718750e+00) (27, 8.66933986544609069824e-02) (28, -2.49744606018066406250e+01) (29, 2.85602480173110961914e-01) (30, -9.25394475460052490234e-01) (31, 1.19067430496215820312e+00) (32, -1.48398876190185546875e+00) (23, 4.15659427642822265625e+00) (24, 5.57185363769531250000e+00) (25, -2.00039196014404296875e+01) (26, -4.60971307754516601562e+00) (27, -6.17285346984863281250e+00) (28, -1.95108425617218017578e+00) (29, -1.07917613983154296875e+01) (30, -4.26797103881835937500e+00) (31, 3.51409387588500976562e+00) (32, -1.86521947383880615234e+00) (23, 1.39977483749389648438e+01) (24, 7.86659851074218750000e+01) (25, -3.35460245609283447266e-01) (26, 6.00993270874023437500e+01) (27, 4.27908386230468750000e+02) (28, 1.15545523166656494141e+00) (29, 1.07154687500000000000e+03) (30, 1.15578432083129882812e+01) (31, 2.75691795349121093750e+00) (32, 2.21448421478271484375e-01) 
