FANN_FLO_2.1
num_layers=3
learning_rate=0.700000
connection_rate=1.000000
network_type=0
learning_momentum=0.000000
training_algorithm=2
train_error_function=1
train_stop_function=0
cascade_output_change_fraction=0.010000
quickprop_decay=-0.000100
quickprop_mu=1.750000
rprop_increase_factor=1.200000
rprop_decrease_factor=0.500000
rprop_delta_min=0.000000
rprop_delta_max=50.000000
rprop_delta_zero=0.100000
cascade_output_stagnation_epochs=12
cascade_candidate_change_fraction=0.010000
cascade_candidate_stagnation_epochs=12
cascade_max_out_epochs=150
cascade_min_out_epochs=50
cascade_max_cand_epochs=150
cascade_min_cand_epochs=50
cascade_num_candidate_groups=2
bit_fail_limit=3.49999994039535522461e-01
cascade_candidate_limit=1.00000000000000000000e+03
cascade_weight_multiplier=4.00000005960464477539e-01
cascade_activation_functions_count=10
cascade_activation_functions=3 5 7 8 10 11 14 15 16 17 
cascade_activation_steepnesses_count=4
cascade_activation_steepnesses=2.50000000000000000000e-01 5.00000000000000000000e-01 7.50000000000000000000e-01 1.00000000000000000000e+00 
layer_sizes=5 10 3 
scale_included=0
neurons (num_inputs, activation_function, activation_steepness)=(0, 0, 0.00000000000000000000e+00) (0, 0, 0.00000000000000000000e+00) (0, 0, 0.00000000000000000000e+00) (0, 0, 0.00000000000000000000e+00) (0, 0, 0.00000000000000000000e+00) (5, 5, 5.00000000000000000000e-01) (5, 5, 5.00000000000000000000e-01) (5, 5, 5.00000000000000000000e-01) (5, 5, 5.00000000000000000000e-01) (5, 5, 5.00000000000000000000e-01) (5, 5, 5.00000000000000000000e-01) (5, 5, 5.00000000000000000000e-01) (5, 5, 5.00000000000000000000e-01) (5, 5, 5.00000000000000000000e-01) (0, 5, 0.00000000000000000000e+00) (10, 5, 5.00000000000000000000e-01) (10, 5, 5.00000000000000000000e-01) (0, 5, 0.00000000000000000000e+00) 
connections (connected_to_neuron, weight)=(0, -4.60754251480102539062e+00) (1, -1.34958565235137939453e+00) (2, -1.40175551176071166992e-01) (3, 2.73291438817977905273e-01) (4, -9.56181213259696960449e-02) (0, 2.78793191909790039062e+00) (1, 1.41294574737548828125e+00) (2, 1.30499631166458129883e-01) (3, -1.08740620315074920654e-01) (4, -1.49259595200419425964e-02) (0, -5.24833679199218750000e+00) (1, -2.07598996162414550781e+00) (2, -6.44194304943084716797e-01) (3, 5.90934813022613525391e-01) (4, -1.12502861022949218750e+00) (0, 3.26370787620544433594e+00) (1, 1.45811319351196289062e+00) (2, 1.92183822393417358398e-01) (3, -1.65802717208862304688e-01) (4, 6.97842091321945190430e-02) (0, 3.54438591003417968750e+00) (1, 2.51352429389953613281e+00) (2, 5.82953035831451416016e-01) (3, -2.87873506546020507812e-01) (4, 5.99776804447174072266e-01) (0, 6.52417087554931640625e+00) (1, 3.62841701507568359375e+00) (2, 5.02487480640411376953e-01) (3, -3.45356702804565429688e-01) (4, 2.63876646757125854492e-01) (0, -1.20056617259979248047e+00) (1, 1.49846613407135009766e-01) (2, 8.25971066951751708984e-02) (3, 2.74940758943557739258e-01) (4, -5.21496534347534179688e-02) (0, 3.59803318977355957031e+00) (1, 2.45202612876892089844e+00) (2, 5.81199467182159423828e-01) (3, -2.73590236902236938477e-01) (4, 5.37553787231445312500e-01) (0, 1.02509713172912597656e+00) (1, 7.39800930023193359375e-01) (2, 2.20489740371704101562e-01) (3, -1.51703387498855590820e-01) (4, 5.01254759728908538818e-02) (5, -6.42984449863433837891e-01) (6, 9.52503395080566406250e+00) (7, -6.88596439361572265625e+00) (8, 4.59390830993652343750e+01) (9, 6.41726636886596679688e+00) (10, 6.45065612792968750000e+01) (11, -8.63964781165122985840e-02) (12, 6.41071224212646484375e+00) (13, 5.44867575168609619141e-01) (14, 3.95974546670913696289e-01) (5, 2.94173455238342285156e+00) (6, -6.00215005874633789062e+00) (7, 1.27005958557128906250e+01) (8, -1.65708789825439453125e+01) (9, -4.94817399978637695312e+00) (10, -1.52849731445312500000e+02) (11, 2.44059279561042785645e-01) (12, -4.96177482604980468750e+00) (13, -1.17054291069507598877e-01) (14, -1.91403981298208236694e-02) 
