FANN_FLO_2.1
num_layers=3
learning_rate=0.700000
connection_rate=1.000000
network_type=0
learning_momentum=0.000000
training_algorithm=2
train_error_function=1
train_stop_function=0
cascade_output_change_fraction=0.010000
quickprop_decay=-0.000100
quickprop_mu=1.750000
rprop_increase_factor=1.200000
rprop_decrease_factor=0.500000
rprop_delta_min=0.000000
rprop_delta_max=50.000000
rprop_delta_zero=0.100000
cascade_output_stagnation_epochs=12
cascade_candidate_change_fraction=0.010000
cascade_candidate_stagnation_epochs=12
cascade_max_out_epochs=150
cascade_min_out_epochs=50
cascade_max_cand_epochs=150
cascade_min_cand_epochs=50
cascade_num_candidate_groups=2
bit_fail_limit=3.49999994039535522461e-01
cascade_candidate_limit=1.00000000000000000000e+03
cascade_weight_multiplier=4.00000005960464477539e-01
cascade_activation_functions_count=10
cascade_activation_functions=3 5 7 8 10 11 14 15 16 17 
cascade_activation_steepnesses_count=4
cascade_activation_steepnesses=2.50000000000000000000e-01 5.00000000000000000000e-01 7.50000000000000000000e-01 1.00000000000000000000e+00 
layer_sizes=5 10 3 
scale_included=0
neurons (num_inputs, activation_function, activation_steepness)=(0, 0, 0.00000000000000000000e+00) (0, 0, 0.00000000000000000000e+00) (0, 0, 0.00000000000000000000e+00) (0, 0, 0.00000000000000000000e+00) (0, 0, 0.00000000000000000000e+00) (5, 5, 5.00000000000000000000e-01) (5, 5, 5.00000000000000000000e-01) (5, 5, 5.00000000000000000000e-01) (5, 5, 5.00000000000000000000e-01) (5, 5, 5.00000000000000000000e-01) (5, 5, 5.00000000000000000000e-01) (5, 5, 5.00000000000000000000e-01) (5, 5, 5.00000000000000000000e-01) (5, 5, 5.00000000000000000000e-01) (0, 5, 0.00000000000000000000e+00) (10, 5, 5.00000000000000000000e-01) (10, 5, 5.00000000000000000000e-01) (0, 5, 0.00000000000000000000e+00) 
connections (connected_to_neuron, weight)=(0, -1.60038614273071289062e+00) (1, 3.82319360971450805664e-01) (2, 8.96995961666107177734e-01) (3, 7.84801065921783447266e-01) (4, 1.57841555774211883545e-02) (0, -1.55482530593872070312e+00) (1, 4.54667359590530395508e-01) (2, 8.39205026626586914062e-01) (3, 8.90673220157623291016e-01) (4, 2.96440664678812026978e-02) (0, -1.53646421432495117188e+00) (1, 4.12488490343093872070e-01) (2, 7.82445013523101806641e-01) (3, 8.70009243488311767578e-01) (4, -2.78318254277110099792e-03) (0, 2.33204007148742675781e+00) (1, -3.60568016767501831055e-02) (2, -4.18144047260284423828e-01) (3, -8.08700740337371826172e-01) (4, 3.28511744737625122070e-01) (0, 3.35003554821014404297e-01) (1, -1.54714673757553100586e-01) (2, 5.02482831478118896484e-01) (3, 2.23583385348320007324e-01) (4, 4.04036700725555419922e-01) (0, 3.51546049118041992188e-01) (1, 1.23512193560600280762e-01) (2, 1.72962248325347900391e-01) (3, 4.64125014841556549072e-02) (4, 6.48117601871490478516e-01) (0, 2.30222797393798828125e+00) (1, -1.20142735540866851807e-01) (2, -4.07201170921325683594e-01) (3, -3.68004709482192993164e-01) (4, 2.71330296993255615234e-01) (0, -1.57181167602539062500e+00) (1, 5.44977843761444091797e-01) (2, 8.75796318054199218750e-01) (3, 7.42814362049102783203e-01) (4, 9.14573967456817626953e-02) (0, 2.32628154754638671875e+00) (1, 5.48243671655654907227e-02) (2, -4.14723515510559082031e-01) (3, -7.76955306529998779297e-01) (4, 3.31505566835403442383e-01) (5, -7.12599420547485351562e+00) (6, -4.89049816131591796875e+00) (7, -7.15903759002685546875e+00) (8, 7.08419799804687500000e+00) (9, 5.00637710094451904297e-01) (10, 5.15717864036560058594e-01) (11, 4.87544488906860351562e+00) (12, -4.93027305603027343750e+00) (13, 7.17921161651611328125e+00) (14, 2.67722457647323608398e-01) (5, 7.13197946548461914062e+00) (6, 6.44225597381591796875e+00) (7, 7.07770538330078125000e+00) (8, -7.18460702896118164062e+00) (9, -1.04557117447257041931e-02) (10, -5.34637197852134704590e-02) (11, -4.49270582199096679688e+00) (12, 2.23267316818237304688e+00) (13, -7.11234760284423828125e+00) (14, -2.42605313658714294434e-01) 
