FANN_FLO_2.1
num_layers=3
learning_rate=0.700000
connection_rate=1.000000
network_type=0
learning_momentum=0.000000
training_algorithm=2
train_error_function=1
train_stop_function=0
cascade_output_change_fraction=0.010000
quickprop_decay=-0.000100
quickprop_mu=1.750000
rprop_increase_factor=1.200000
rprop_decrease_factor=0.500000
rprop_delta_min=0.000000
rprop_delta_max=50.000000
rprop_delta_zero=0.100000
cascade_output_stagnation_epochs=12
cascade_candidate_change_fraction=0.010000
cascade_candidate_stagnation_epochs=12
cascade_max_out_epochs=150
cascade_min_out_epochs=50
cascade_max_cand_epochs=150
cascade_min_cand_epochs=50
cascade_num_candidate_groups=2
bit_fail_limit=3.49999994039535522461e-01
cascade_candidate_limit=1.00000000000000000000e+03
cascade_weight_multiplier=4.00000005960464477539e-01
cascade_activation_functions_count=10
cascade_activation_functions=3 5 7 8 10 11 14 15 16 17 
cascade_activation_steepnesses_count=4
cascade_activation_steepnesses=2.50000000000000000000e-01 5.00000000000000000000e-01 7.50000000000000000000e-01 1.00000000000000000000e+00 
layer_sizes=2 10 4 
scale_included=0
neurons (num_inputs, activation_function, activation_steepness)=(0, 0, 0.00000000000000000000e+00) (0, 0, 0.00000000000000000000e+00) (2, 5, 5.00000000000000000000e-01) (2, 5, 5.00000000000000000000e-01) (2, 5, 5.00000000000000000000e-01) (2, 5, 5.00000000000000000000e-01) (2, 5, 5.00000000000000000000e-01) (2, 5, 5.00000000000000000000e-01) (2, 5, 5.00000000000000000000e-01) (2, 5, 5.00000000000000000000e-01) (2, 5, 5.00000000000000000000e-01) (0, 5, 0.00000000000000000000e+00) (10, 5, 5.00000000000000000000e-01) (10, 5, 5.00000000000000000000e-01) (10, 5, 5.00000000000000000000e-01) (0, 5, 0.00000000000000000000e+00) 
connections (connected_to_neuron, weight)=(0, 5.11707544326782226562e+00) (1, -1.83786487579345703125e+00) (0, 3.77828031778335571289e-01) (1, 1.17680406570434570312e+00) (0, 9.61423206329345703125e+00) (1, 2.71052408218383789062e+00) (0, 1.79117834568023681641e+00) (1, 1.01869553327560424805e-01) (0, -4.75340664386749267578e-01) (1, -4.57034677267074584961e-01) (0, 9.19770050048828125000e+00) (1, 2.99653553962707519531e+00) (0, 9.41824150085449218750e+00) (1, 3.03385686874389648438e+00) (0, -5.41403627395629882812e+00) (1, 1.74499666690826416016e+00) (0, -3.31919980049133300781e+00) (1, 9.69779372215270996094e-01) (2, -1.44224443435668945312e+01) (3, -8.95081615447998046875e+00) (4, 5.36164855957031250000e+00) (5, 8.41619849205017089844e-01) (6, 2.16041851043701171875e+00) (7, 9.69739246368408203125e+00) (8, 9.62181472778320312500e+00) (9, 1.29220046997070312500e+01) (10, 5.15823078155517578125e+00) (11, -1.02825222015380859375e+01) (2, 6.33164901733398437500e+01) (3, -5.42099857330322265625e+00) (4, -4.92853999137878417969e-01) (5, -2.93731212615966796875e+00) (6, 3.59478235244750976562e+00) (7, -7.32081174850463867188e+00) (8, -1.08230237960815429688e+01) (9, 6.85268096923828125000e+01) (10, -1.72775955200195312500e+02) (11, -1.12145967483520507812e+01) (2, 1.45853891968727111816e-01) (3, 1.89090058207511901855e-01) (4, -1.50549030303955078125e+00) (5, 2.24374711513519287109e-01) (6, 4.23236877441406250000e+02) (7, -2.40180149078369140625e+01) (8, -3.57064514160156250000e+01) (9, 1.43499553203582763672e+00) (10, 1.42996990680694580078e+00) (11, 5.29355430603027343750e+00) 
