FANN_FLO_2.1
num_layers=3
learning_rate=0.700000
connection_rate=1.000000
network_type=0
learning_momentum=0.000000
training_algorithm=2
train_error_function=1
train_stop_function=0
cascade_output_change_fraction=0.010000
quickprop_decay=-0.000100
quickprop_mu=1.750000
rprop_increase_factor=1.200000
rprop_decrease_factor=0.500000
rprop_delta_min=0.000000
rprop_delta_max=50.000000
rprop_delta_zero=0.100000
cascade_output_stagnation_epochs=12
cascade_candidate_change_fraction=0.010000
cascade_candidate_stagnation_epochs=12
cascade_max_out_epochs=150
cascade_min_out_epochs=50
cascade_max_cand_epochs=150
cascade_min_cand_epochs=50
cascade_num_candidate_groups=2
bit_fail_limit=3.49999994039535522461e-01
cascade_candidate_limit=1.00000000000000000000e+03
cascade_weight_multiplier=4.00000005960464477539e-01
cascade_activation_functions_count=10
cascade_activation_functions=3 5 7 8 10 11 14 15 16 17 
cascade_activation_steepnesses_count=4
cascade_activation_steepnesses=2.50000000000000000000e-01 5.00000000000000000000e-01 7.50000000000000000000e-01 1.00000000000000000000e+00 
layer_sizes=35 10 8 
scale_included=0
neurons (num_inputs, activation_function, activation_steepness)=(0, 0, 0.00000000000000000000e+00) (0, 0, 0.00000000000000000000e+00) (0, 0, 0.00000000000000000000e+00) (0, 0, 0.00000000000000000000e+00) (0, 0, 0.00000000000000000000e+00) (0, 0, 0.00000000000000000000e+00) (0, 0, 0.00000000000000000000e+00) (0, 0, 0.00000000000000000000e+00) (0, 0, 0.00000000000000000000e+00) (0, 0, 0.00000000000000000000e+00) (0, 0, 0.00000000000000000000e+00) (0, 0, 0.00000000000000000000e+00) (0, 0, 0.00000000000000000000e+00) (0, 0, 0.00000000000000000000e+00) (0, 0, 0.00000000000000000000e+00) (0, 0, 0.00000000000000000000e+00) (0, 0, 0.00000000000000000000e+00) (0, 0, 0.00000000000000000000e+00) (0, 0, 0.00000000000000000000e+00) (0, 0, 0.00000000000000000000e+00) (0, 0, 0.00000000000000000000e+00) (0, 0, 0.00000000000000000000e+00) (0, 0, 0.00000000000000000000e+00) (0, 0, 0.00000000000000000000e+00) (0, 0, 0.00000000000000000000e+00) (0, 0, 0.00000000000000000000e+00) (0, 0, 0.00000000000000000000e+00) (0, 0, 0.00000000000000000000e+00) (0, 0, 0.00000000000000000000e+00) (0, 0, 0.00000000000000000000e+00) (0, 0, 0.00000000000000000000e+00) (0, 0, 0.00000000000000000000e+00) (0, 0, 0.00000000000000000000e+00) (0, 0, 0.00000000000000000000e+00) (0, 0, 0.00000000000000000000e+00) (35, 5, 5.00000000000000000000e-01) (35, 5, 5.00000000000000000000e-01) (35, 5, 5.00000000000000000000e-01) (35, 5, 5.00000000000000000000e-01) (35, 5, 5.00000000000000000000e-01) (35, 5, 5.00000000000000000000e-01) (35, 5, 5.00000000000000000000e-01) (35, 5, 5.00000000000000000000e-01) (35, 5, 5.00000000000000000000e-01) (0, 5, 0.00000000000000000000e+00) (10, 5, 5.00000000000000000000e-01) (10, 5, 5.00000000000000000000e-01) (10, 5, 5.00000000000000000000e-01) (10, 5, 5.00000000000000000000e-01) (10, 5, 5.00000000000000000000e-01) (10, 5, 5.00000000000000000000e-01) (10, 5, 5.00000000000000000000e-01) (0, 5, 0.00000000000000000000e+00) 
connections (connected_to_neuron, weight)=(0, -1.92863845825195312500e+00) (1, 1.48100405931472778320e-01) (2, 2.72784662246704101562e+00) (3, 2.93521910905838012695e-01) (4, 1.54323056340217590332e-01) (5, 5.35991764068603515625e+00) (6, 2.90614545345306396484e-01) (7, 4.28815305233001708984e-01) (8, 7.04894602298736572266e-01) (9, 1.23878158628940582275e-01) (10, 3.13395156860351562500e+01) (11, -3.25809049606323242188e+00) (12, -2.68525600433349609375e+00) (13, -1.10102519989013671875e+01) (14, 2.27802486419677734375e+01) (15, 3.18567007780075073242e-01) (16, 1.34774386882781982422e+00) (17, 4.48255002498626708984e-01) (18, 4.27111625671386718750e-01) (19, 2.42008090019226074219e+00) (20, 5.40512466430664062500e+00) (21, 4.72214937210083007812e-01) (22, -4.79887342453002929688e+00) (23, 1.82140320539474487305e-01) (24, -1.27403056621551513672e+00) (25, 3.03191721439361572266e-01) (26, 1.46909892559051513672e+00) (27, 5.22235870361328125000e+00) (28, -5.84375619888305664062e-01) (29, 5.38629388809204101562e+00) (30, 1.22087478637695312500e+00) (31, 5.43462181091308593750e+00) (32, 5.91128616333007812500e+01) (33, 4.56107109785079956055e-01) (34, 4.45399791002273559570e-01) (0, 1.49841784667968750000e+03) (1, -1.19039050292968750000e+03) (2, -1.50000000000000000000e+03) (3, 1.48500000000000000000e+03) (4, -1.50000000000000000000e+03) (5, -1.50000000000000000000e+03) (6, 1.48500000000000000000e+03) (7, -1.15756958007812500000e+03) (8, 1.50000000000000000000e+03) (9, -1.50000000000000000000e+03) (10, 1.48856616210937500000e+03) (11, -1.50000000000000000000e+03) (12, -1.50000000000000000000e+03) (13, -1.47543518066406250000e+03) (14, 1.50000000000000000000e+03) (15, -1.50000000000000000000e+03) (16, -1.40900000000000000000e+03) (17, -1.50000000000000000000e+03) (18, 1.50000000000000000000e+03) (19, -1.50000000000000000000e+03) (20, 1.48416455078125000000e+03) (21, -1.49758178710937500000e+03) (22, 1.49999523925781250000e+03) (23, -1.42137597656250000000e+03) (24, -1.34932788085937500000e+03) (25, -1.47812878417968750000e+03) (26, 1.50000000000000000000e+03) (27, -1.43952001953125000000e+03) (28, 5.93708007812500000000e+02) (29, -1.50000000000000000000e+03) (30, 1.50000000000000000000e+03) (31, -1.41554235839843750000e+03) (32, -8.09910156250000000000e+02) (33, -1.40900000000000000000e+03) (34, -1.50000000000000000000e+03) (0, 1.49992980957031250000e+03) (1, -1.43109301757812500000e+03) (2, -1.50000000000000000000e+03) (3, 1.45810083007812500000e+03) (4, -1.38959411621093750000e+03) (5, -1.31912158203125000000e+03) (6, 1.45810083007812500000e+03) (7, -1.38607421875000000000e+03) (8, 1.50000000000000000000e+03) (9, -1.38612280273437500000e+03) (10, 1.48034399414062500000e+03) (11, -1.50000000000000000000e+03) (12, -1.50000000000000000000e+03) (13, -1.50000000000000000000e+03) (14, -5.69443725585937500000e+02) (15, -1.38747924804687500000e+03) (16, -2.80716400146484375000e+02) (17, -1.38607421875000000000e+03) (18, 1.49339062500000000000e+03) (19, -1.50000000000000000000e+03) (20, 2.81228118896484375000e+02) (21, -1.50000000000000000000e+03) (22, 5.32719177246093750000e+02) (23, -1.33692773437500000000e+03) (24, -1.49646752929687500000e+03) (25, -1.38397717285156250000e+03) (26, 5.49906311035156250000e+02) (27, -7.47448425292968750000e+02) (28, -1.44651330566406250000e+03) (29, -1.49428393554687500000e+03) (30, 1.50000000000000000000e+03) (31, -1.49658789062500000000e+03) (32, 1.50000000000000000000e+03) (33, -1.50000000000000000000e+03) (34, -1.49620275878906250000e+03) (0, 1.33103656768798828125e+00) (1, -3.04312765598297119141e-01) (2, 6.04651308059692382812e+00) (3, 3.61315399408340454102e-01) (4, 2.68547981977462768555e-01) (5, 3.01554989814758300781e+00) (6, 2.73748010396957397461e-01) (7, -1.06610286235809326172e+00) (8, 4.62360572814941406250e+00) (9, -6.75791501998901367188e-02) (10, 4.90944242477416992188e+00) (11, 2.25208830833435058594e+00) (12, -1.91546642780303955078e+00) (13, 7.97772598266601562500e+00) (14, 7.84229326248168945312e+00) (15, -6.32185280323028564453e-01) (16, -9.30017888545989990234e-01) (17, 1.44562616944313049316e-01) (18, 3.31462055444717407227e-01) (19, 6.15835785865783691406e-01) (20, 1.85395216941833496094e+00) (21, 4.50919717550277709961e-02) (22, -1.15683031082153320312e+00) (23, -1.62068843841552734375e+00) (24, -3.30096691846847534180e-01) (25, -1.20698772370815277100e-01) (26, 3.80176258087158203125e+00) (27, -4.32330131530761718750e+00) (28, 4.96635437011718750000e+00) (29, -2.34477114677429199219e+00) (30, -2.93782854080200195312e+00) (31, -2.97066354751586914062e+00) (32, 3.16099147796630859375e+01) (33, 1.65938067436218261719e+00) (34, 8.67215812206268310547e-01) (0, 4.54947650432586669922e-01) (1, -4.62126493453979492188e+00) (2, 2.75257825851440429688e+00) (3, 3.03572058677673339844e-01) (4, 9.66741591691970825195e-02) (5, 4.88127613067626953125e+00) (6, 1.61234244704246520996e-01) (7, 1.27537623047828674316e-01) (8, -2.02761478722095489502e-02) (9, 2.31665849685668945312e-01) (10, -9.85160903930664062500e+01) (11, 1.19070351123809814453e-01) (12, 4.67132091522216796875e-01) (13, -9.40449237823486328125e-02) (14, -2.88954254150390625000e+02) (15, -2.25581601262092590332e-01) (16, -3.02628397941589355469e+00) (17, -3.83379131555557250977e-01) (18, 3.56024146080017089844e-01) (19, 3.69171887636184692383e-01) (20, 1.56511545181274414062e+01) (21, 1.64642632007598876953e-01) (22, 6.46643161773681640625e-01) (23, -1.10409307479858398438e+00) (24, -6.17375183105468750000e+00) (25, -1.07447639107704162598e-01) (26, 6.85976266860961914062e+00) (27, -9.95586624145507812500e+01) (28, 2.73390197753906250000e+02) (29, 1.19723930954933166504e-01) (30, 6.92214608192443847656e-01) (31, -2.14053153991699218750e-01) (32, 4.23784912109375000000e+02) (33, 1.13981492817401885986e-01) (34, 3.20326536893844604492e-01) (0, 1.50000000000000000000e+03) (1, -3.50889778137207031250e+00) (2, 1.49953332519531250000e+03) (3, -1.39545422363281250000e+03) (4, 1.47507128906250000000e+03) (5, 1.49769982910156250000e+03) (6, -1.49783508300781250000e+03) (7, 1.49905505371093750000e+03) (8, 1.46115917968750000000e+03) (9, 1.49941943359375000000e+03) (10, -1.48948974609375000000e+03) (11, 6.74640075683593750000e+02) (12, 3.89694915771484375000e+02) (13, 1.29448132324218750000e+03) (14, -1.42131201171875000000e+03) (15, 1.45798242187500000000e+03) (16, 7.15643493652343750000e+02) (17, 1.47778430175781250000e+03) (18, -1.24700561523437500000e+03) (19, 1.49929638671875000000e+03) (20, 1.50000000000000000000e+03) (21, 1.49864672851562500000e+03) (22, 5.18216003417968750000e+02) (23, -4.52715209960937500000e+02) (24, 7.00226196289062500000e+02) (25, 1.49965258789062500000e+03) (26, 1.50000000000000000000e+03) (27, 1.47424243164062500000e+03) (28, 1.50000000000000000000e+03) (29, -1.49552001953125000000e+03) (30, -1.43225805664062500000e+03) (31, -1.49160363769531250000e+03) (32, -1.50000000000000000000e+03) (33, -1.27901489257812500000e+03) (34, 1.49985791015625000000e+03) (0, 1.49459423828125000000e+03) (1, -1.22323254394531250000e+03) (2, -1.50000000000000000000e+03) (3, 1.49885253906250000000e+03) (4, -1.47812878417968750000e+03) (5, -1.39777136230468750000e+03) (6, 1.49885253906250000000e+03) (7, -1.38601879882812500000e+03) (8, 1.50000000000000000000e+03) (9, -1.49972534179687500000e+03) (10, 1.49066882324218750000e+03) (11, -1.50000000000000000000e+03) (12, -1.50000000000000000000e+03) (13, -1.50000000000000000000e+03) (14, 1.50000000000000000000e+03) (15, -1.49934082031250000000e+03) (16, -4.00950225830078125000e+02) (17, -1.38827478027343750000e+03) (18, 1.43400000000000000000e+03) (19, -1.50000000000000000000e+03) (20, -1.50000000000000000000e+03) (21, -1.50000000000000000000e+03) (22, 1.43184228515625000000e+03) (23, -1.38076269531250000000e+03) (24, -1.43701062011718750000e+03) (25, -1.38397717285156250000e+03) (26, -1.20824165344238281250e+02) (27, -1.44500000000000000000e+03) (28, -1.44578552246093750000e+03) (29, -1.41719531250000000000e+03) (30, 1.50000000000000000000e+03) (31, -1.45960729980468750000e+03) (32, 1.50000000000000000000e+03) (33, -1.50000000000000000000e+03) (34, -1.47812878417968750000e+03) (0, 4.23228502273559570312e+00) (1, -1.79951584339141845703e+00) (2, 8.82936790585517883301e-02) (3, -1.25995084643363952637e-01) (4, 6.73922538757324218750e-01) (5, 3.09112548828125000000e+00) (6, -1.33440159261226654053e-02) (7, -6.20741128921508789062e-01) (8, 4.32299327850341796875e+00) (9, 2.20014631748199462891e-01) (10, 1.96685504913330078125e+00) (11, 4.54831933975219726562e+00) (12, 1.13252556324005126953e+00) (13, 2.06096386909484863281e+00) (14, -5.38267552852630615234e-01) (15, -1.44170689582824707031e+00) (16, -1.70142844319343566895e-01) (17, -1.50674283504486083984e+00) (18, 6.01004779338836669922e-01) (19, 5.26509821414947509766e-01) (20, -5.42074322700500488281e-01) (21, 1.43875265121459960938e+00) (22, 9.74099244922399520874e-03) (23, -5.88881373405456542969e-01) (24, 5.52270698547363281250e+00) (25, 1.31219863891601562500e+00) (26, 1.11281788349151611328e+00) (27, -2.35458612442016601562e-02) (28, 3.13212413787841796875e+01) (29, 5.41035652160644531250e-01) (30, 9.95344221591949462891e-01) (31, -9.43438053131103515625e+00) (32, 5.79891166687011718750e+01) (33, 5.26182316243648529053e-02) (34, 1.28473258018493652344e+00) (0, 1.49851379394531250000e+03) (1, -1.45555676269531250000e+03) (2, -1.50000000000000000000e+03) (3, 1.45810083007812500000e+03) (4, -1.39010717773437500000e+03) (5, -1.32789758300781250000e+03) (6, 1.45810083007812500000e+03) (7, -1.40552416992187500000e+03) (8, 1.50000000000000000000e+03) (9, -1.38612280273437500000e+03) (10, 1.48034399414062500000e+03) (11, -1.50000000000000000000e+03) (12, -1.50000000000000000000e+03) (13, -1.50000000000000000000e+03) (14, -6.71721984863281250000e+02) (15, -1.38836389160156250000e+03) (16, -5.64860351562500000000e+02) (17, -1.38607421875000000000e+03) (18, 1.48725036621093750000e+03) (19, -1.50000000000000000000e+03) (20, -2.73612426757812500000e+02) (21, -1.50000000000000000000e+03) (22, 5.32719177246093750000e+02) (23, -1.38124194335937500000e+03) (24, -1.49152246093750000000e+03) (25, -1.38397717285156250000e+03) (26, 3.10008270263671875000e+02) (27, -1.44500000000000000000e+03) (28, -1.44651330566406250000e+03) (29, -1.49389111328125000000e+03) (30, 1.50000000000000000000e+03) (31, -1.48435913085937500000e+03) (32, 1.50000000000000000000e+03) (33, -1.50000000000000000000e+03) (34, -1.49620275878906250000e+03) (35, 1.45000000000000000000e+03) (36, 1.50000000000000000000e+03) (37, 1.50000000000000000000e+03) (38, 1.45000000000000000000e+03) (39, 1.50000000000000000000e+03) (40, 1.45000000000000000000e+03) (41, 1.50000000000000000000e+03) (42, 1.45000000000000000000e+03) (43, 1.50000000000000000000e+03) (44, 1.45000000000000000000e+03) (35, 2.90617809295654296875e+01) (36, 1.34212436676025390625e+01) (37, 6.00284576416015625000e+00) (38, 8.65022242069244384766e-01) (39, -1.53484573364257812500e+01) (40, -1.67151784896850585938e+00) (41, 6.02804613113403320312e+00) (42, 1.23867464065551757812e+01) (43, 6.00276708602905273438e+00) (44, -9.10627841949462890625e+00) (35, 6.03959858417510986328e-01) (36, 6.23449802398681640625e-01) (37, 5.27736091613769531250e+00) (38, 2.99686203002929687500e+01) (39, 6.74109697341918945312e-01) (40, -7.85968112945556640625e+00) (41, 5.18646717071533203125e+00) (42, -1.71478958129882812500e+01) (43, 5.34050130844116210938e+00) (44, -7.95374345779418945312e+00) (35, 6.28592758178710937500e+01) (36, 5.84952056407928466797e-01) (37, 5.65605545043945312500e+00) (38, -7.24890670776367187500e+01) (39, 7.60047912597656250000e-01) (40, -1.91563558578491210938e+00) (41, 5.60964965820312500000e+00) (42, -8.51633131504058837891e-01) (43, 5.56364583969116210938e+00) (44, -1.92202246189117431641e+00) (35, -1.14311647415161132812e+01) (36, 3.99383401870727539062e+00) (37, 1.35759210586547851562e+00) (38, 1.48442134857177734375e+01) (39, -3.04637813568115234375e+00) (40, -8.35199177265167236328e-01) (41, 2.43392086029052734375e+00) (42, -1.44887590408325195312e+00) (43, 1.50858128070831298828e+00) (44, -6.72162234783172607422e-01) (35, 5.51579856872558593750e+00) (36, 6.50752127170562744141e-01) (37, 1.22379004955291748047e+00) (38, -1.86184425354003906250e+01) (39, 2.19333457946777343750e+00) (40, -6.33931457996368408203e-01) (41, 1.35486817359924316406e+00) (42, 1.36545200347900390625e+01) (43, 1.30380392074584960938e+00) (44, -1.10254561901092529297e+00) (35, -4.42677307128906250000e+01) (36, 1.17883739471435546875e+01) (37, 5.50853157043457031250e+00) (38, 1.80689926147460937500e+01) (39, 2.09754514694213867188e+00) (40, -3.33185172080993652344e+00) (41, 5.54773139953613281250e+00) (42, -4.10235595703125000000e+01) (43, 5.51449298858642578125e+00) (44, -3.37423324584960937500e+00) 
